<?xml version="1.0"?>
<opencv_storage>
<cascade>
  <stageType>BOOST</stageType>
  <featureType>HAAR</featureType>
  <height>30</height>
  <width>60</width>
  <stageParams>
    <boostType>GAB</boostType>
    <minHitRate>9.9500000476837158e-01</minHitRate>
    <maxFalseAlarm>5.0000000000000000e-01</maxFalseAlarm>
    <weightTrimRate>9.4999999999999996e-01</weightTrimRate>
    <maxDepth>1</maxDepth>
    <maxWeakCount>100</maxWeakCount></stageParams>
  <featureParams>
    <maxCatCount>0</maxCatCount>
    <featSize>1</featSize>
    <mode>ALL</mode></featureParams>
  <stageNum>10</stageNum>
  <stages>
    <!-- stage 0 -->
    <_>
      <maxWeakCount>4</maxWeakCount>
      <stageThreshold>-2.2141299247741699e+00</stageThreshold>
      <weakClassifiers>
        <_>
          <internalNodes>
            0 -1 7 -4.6447771787643433e-01</internalNodes>
          <leafValues>
            6.7224878072738647e-01 -9.6875000000000000e-01</leafValues></_>
        <_>
          <internalNodes>
            0 -1 0 -3.7308141589164734e-01</internalNodes>
          <leafValues>
            2.4207624793052673e-01 -9.3702042102813721e-01</leafValues></_>
        <_>
          <internalNodes>
            0 -1 17 -3.7900670431554317e-03</internalNodes>
          <leafValues>
            7.0966941118240356e-01 -6.6352730989456177e-01</leafValues></_>
        <_>
          <internalNodes>
            0 -1 5 -1.0463852435350418e-02</internalNodes>
          <leafValues>
            3.5516786575317383e-01 -9.4732117652893066e-01</leafValues></_></weakClassifiers></_>
    <!-- stage 1 -->
    <_>
      <maxWeakCount>5</maxWeakCount>
      <stageThreshold>-1.9674340486526489e+00</stageThreshold>
      <weakClassifiers>
        <_>
          <internalNodes>
            0 -1 8 -2.2295567393302917e-01</internalNodes>
          <leafValues>
            4.3099787831306458e-01 -9.6036487817764282e-01</leafValues></_>
        <_>
          <internalNodes>
            0 -1 2 1.6941624879837036e-01</internalNodes>
          <leafValues>
            -9.4553112983703613e-01 2.0327799022197723e-01</leafValues></_>
        <_>
          <internalNodes>
            0 -1 11 -5.0704397261142731e-02</internalNodes>
          <leafValues>
            2.3666547238826752e-01 -8.3485275506973267e-01</leafValues></_>
        <_>
          <internalNodes>
            0 -1 20 2.9137086130504031e-06</internalNodes>
          <leafValues>
            2.2902362048625946e-01 -9.8863679170608521e-01</leafValues></_>
        <_>
          <internalNodes>
            0 -1 20 -3.5969771943200612e-06</internalNodes>
          <leafValues>
            -9.2712038755416870e-01 5.4429107904434204e-01</leafValues></_></weakClassifiers></_>
    <!-- stage 2 -->
    <_>
      <maxWeakCount>3</maxWeakCount>
      <stageThreshold>-1.5406019687652588e+00</stageThreshold>
      <weakClassifiers>
        <_>
          <internalNodes>
            0 -1 3 -1.6071451827883720e-03</internalNodes>
          <leafValues>
            2.9166665673255920e-01 -8.7269484996795654e-01</leafValues></_>
        <_>
          <internalNodes>
            0 -1 21 5.1929904147982597e-03</internalNodes>
          <leafValues>
            -8.8038283586502075e-01 1.4322464168071747e-01</leafValues></_>
        <_>
          <internalNodes>
            0 -1 29 -3.2695525078452192e-06</internalNodes>
          <leafValues>
            -9.8122495412826538e-01 2.1247568726539612e-01</leafValues></_></weakClassifiers></_>
    <!-- stage 3 -->
    <_>
      <maxWeakCount>3</maxWeakCount>
      <stageThreshold>-1.6430084705352783e+00</stageThreshold>
      <weakClassifiers>
        <_>
          <internalNodes>
            0 -1 29 4.5878041419200599e-06</internalNodes>
          <leafValues>
            -2.3607689142227173e-01 -9.9051415920257568e-01</leafValues></_>
        <_>
          <internalNodes>
            0 -1 18 7.7965138480067253e-03</internalNodes>
          <leafValues>
            -8.9017921686172485e-01 2.2726240754127502e-01</leafValues></_>
        <_>
          <internalNodes>
            0 -1 13 5.6574745030957274e-06</internalNodes>
          <leafValues>
            2.3768489062786102e-01 -9.6198934316635132e-01</leafValues></_></weakClassifiers></_>
    <!-- stage 4 -->
    <_>
      <maxWeakCount>2</maxWeakCount>
      <stageThreshold>-1.0625740289688110e+00</stageThreshold>
      <weakClassifiers>
        <_>
          <internalNodes>
            0 -1 13 -4.1595130824134685e-06</internalNodes>
          <leafValues>
            -9.9748289585113525e-01 -8.7456844747066498e-02</leafValues></_>
        <_>
          <internalNodes>
            0 -1 29 4.5878041419200599e-06</internalNodes>
          <leafValues>
            6.7480094730854034e-02 -9.7511714696884155e-01</leafValues></_></weakClassifiers></_>
    <!-- stage 5 -->
    <_>
      <maxWeakCount>4</maxWeakCount>
      <stageThreshold>-1.9335430860519409e+00</stageThreshold>
      <weakClassifiers>
        <_>
          <internalNodes>
            0 -1 1 -1.8267158418893814e-02</internalNodes>
          <leafValues>
            8.8481676578521729e-01 -8.7279558181762695e-01</leafValues></_>
        <_>
          <internalNodes>
            0 -1 10 -4.1425448656082153e-01</internalNodes>
          <leafValues>
            4.7375428676605225e-01 -8.3740234375000000e-01</leafValues></_>
        <_>
          <internalNodes>
            0 -1 6 1.2235974427312613e-03</internalNodes>
          <leafValues>
            -5.8206760883331299e-01 6.3388681411743164e-01</leafValues></_>
        <_>
          <internalNodes>
            0 -1 15 4.8511242493987083e-03</internalNodes>
          <leafValues>
            -8.5723203420639038e-01 4.2427307367324829e-01</leafValues></_></weakClassifiers></_>
    <!-- stage 6 -->
    <_>
      <maxWeakCount>3</maxWeakCount>
      <stageThreshold>-1.1459130048751831e+00</stageThreshold>
      <weakClassifiers>
        <_>
          <internalNodes>
            0 -1 4 4.0494310669600964e-03</internalNodes>
          <leafValues>
            -8.7950748205184937e-01 6.2761503458023071e-01</leafValues></_>
        <_>
          <internalNodes>
            0 -1 28 3.8707191124558449e-03</internalNodes>
          <leafValues>
            -6.4407217502593994e-01 8.0507630109786987e-01</leafValues></_>
        <_>
          <internalNodes>
            0 -1 24 3.6245894534658873e-06</internalNodes>
          <leafValues>
            3.7766671180725098e-01 -9.7426706552505493e-01</leafValues></_></weakClassifiers></_>
    <!-- stage 7 -->
    <_>
      <maxWeakCount>5</maxWeakCount>
      <stageThreshold>-1.9131034612655640e+00</stageThreshold>
      <weakClassifiers>
        <_>
          <internalNodes>
            0 -1 12 1.5704199671745300e-02</internalNodes>
          <leafValues>
            -8.5771656036376953e-01 8.5365855693817139e-01</leafValues></_>
        <_>
          <internalNodes>
            0 -1 22 1.8880313728004694e-03</internalNodes>
          <leafValues>
            -7.9069375991821289e-01 4.7753831744194031e-01</leafValues></_>
        <_>
          <internalNodes>
            0 -1 27 -3.2320372156391386e-06</internalNodes>
          <leafValues>
            -9.5249027013778687e-01 3.3510276675224304e-01</leafValues></_>
        <_>
          <internalNodes>
            0 -1 19 -3.5541781926440308e-06</internalNodes>
          <leafValues>
            -9.0498715639114380e-01 3.2370322942733765e-01</leafValues></_>
        <_>
          <internalNodes>
            0 -1 25 -3.0506851089739939e-06</internalNodes>
          <leafValues>
            -9.2349910736083984e-01 4.1030356287956238e-01</leafValues></_></weakClassifiers></_>
    <!-- stage 8 -->
    <_>
      <maxWeakCount>3</maxWeakCount>
      <stageThreshold>-1.2509989738464355e+00</stageThreshold>
      <weakClassifiers>
        <_>
          <internalNodes>
            0 -1 16 7.5752362608909607e-03</internalNodes>
          <leafValues>
            -9.0976309776306152e-01 4.8885586857795715e-01</leafValues></_>
        <_>
          <internalNodes>
            0 -1 14 -6.9179415702819824e-02</internalNodes>
          <leafValues>
            7.3183393478393555e-01 -7.0301645994186401e-01</leafValues></_>
        <_>
          <internalNodes>
            0 -1 9 -2.4965580552816391e-02</internalNodes>
          <leafValues>
            3.6178058385848999e-01 -9.3336558341979980e-01</leafValues></_></weakClassifiers></_>
    <!-- stage 9 -->
    <_>
      <maxWeakCount>2</maxWeakCount>
      <stageThreshold>-7.3797440528869629e-01</stageThreshold>
      <weakClassifiers>
        <_>
          <internalNodes>
            0 -1 23 2.0202761515974998e-03</internalNodes>
          <leafValues>
            -8.6380648612976074e-01 8.4745764732360840e-01</leafValues></_>
        <_>
          <internalNodes>
            0 -1 26 -4.1225721361115575e-06</internalNodes>
          <leafValues>
            -9.9478685855865479e-01 1.2583211064338684e-01</leafValues></_></weakClassifiers></_></stages>
  <features>
    <_>
      <rects>
        <_>
          0 0 50 30 -1.</_>
        <_>
          0 10 50 10 3.</_></rects>
      <tilted>0</tilted></_>
    <_>
      <rects>
        <_>
          0 8 3 15 -1.</_>
        <_>
          1 13 1 5 9.</_></rects>
      <tilted>0</tilted></_>
    <_>
      <rects>
        <_>
          0 12 60 18 -1.</_>
        <_>
          0 21 60 9 2.</_></rects>
      <tilted>0</tilted></_>
    <_>
      <rects>
        <_>
          0 14 4 2 -1.</_>
        <_>
          1 14 2 2 2.</_></rects>
      <tilted>0</tilted></_>
    <_>
      <rects>
        <_>
          1 14 6 3 -1.</_>
        <_>
          4 14 3 3 2.</_></rects>
      <tilted>0</tilted></_>
    <_>
      <rects>
        <_>
          2 7 22 10 -1.</_>
        <_>
          13 7 11 10 2.</_></rects>
      <tilted>0</tilted></_>
    <_>
      <rects>
        <_>
          2 12 6 6 -1.</_>
        <_>
          5 12 3 6 2.</_></rects>
      <tilted>0</tilted></_>
    <_>
      <rects>
        <_>
          13 0 47 30 -1.</_>
        <_>
          13 10 47 10 3.</_></rects>
      <tilted>0</tilted></_>
    <_>
      <rects>
        <_>
          17 2 28 28 -1.</_>
        <_>
          17 9 28 14 2.</_></rects>
      <tilted>0</tilted></_>
    <_>
      <rects>
        <_>
          18 0 25 26 -1.</_>
        <_>
          18 13 25 13 2.</_></rects>
      <tilted>0</tilted></_>
    <_>
      <rects>
        <_>
          20 0 39 30 -1.</_>
        <_>
          20 10 39 10 3.</_></rects>
      <tilted>0</tilted></_>
    <_>
      <rects>
        <_>
          20 1 20 20 -1.</_>
        <_>
          20 6 20 10 2.</_></rects>
      <tilted>0</tilted></_>
    <_>
      <rects>
        <_>
          22 9 36 4 -1.</_>
        <_>
          22 9 18 2 2.</_>
        <_>
          40 11 18 2 2.</_></rects>
      <tilted>0</tilted></_>
    <_>
      <rects>
        <_>
          22 29 18 1 -1.</_>
        <_>
          28 29 6 1 3.</_></rects>
      <tilted>0</tilted></_>
    <_>
      <rects>
        <_>
          23 6 12 15 -1.</_>
        <_>
          23 11 12 5 3.</_></rects>
      <tilted>0</tilted></_>
    <_>
      <rects>
        <_>
          23 22 11 8 -1.</_>
        <_>
          23 26 11 4 2.</_></rects>
      <tilted>0</tilted></_>
    <_>
      <rects>
        <_>
          26 2 8 6 -1.</_>
        <_>
          26 4 8 2 3.</_></rects>
      <tilted>0</tilted></_>
    <_>
      <rects>
        <_>
          26 5 9 4 -1.</_>
        <_>
          26 6 9 2 2.</_></rects>
      <tilted>0</tilted></_>
    <_>
      <rects>
        <_>
          26 22 9 6 -1.</_>
        <_>
          26 25 9 3 2.</_></rects>
      <tilted>0</tilted></_>
    <_>
      <rects>
        <_>
          26 25 4 2 -1.</_>
        <_>
          28 25 2 2 2.</_></rects>
      <tilted>0</tilted></_>
    <_>
      <rects>
        <_>
          27 0 9 1 -1.</_>
        <_>
          30 0 3 1 3.</_></rects>
      <tilted>0</tilted></_>
    <_>
      <rects>
        <_>
          27 22 7 6 -1.</_>
        <_>
          27 25 7 3 2.</_></rects>
      <tilted>0</tilted></_>
    <_>
      <rects>
        <_>
          29 2 3 6 -1.</_>
        <_>
          29 4 3 2 3.</_></rects>
      <tilted>0</tilted></_>
    <_>
      <rects>
        <_>
          30 22 3 2 -1.</_>
        <_>
          30 23 3 1 2.</_></rects>
      <tilted>0</tilted></_>
    <_>
      <rects>
        <_>
          30 29 8 1 -1.</_>
        <_>
          34 29 4 1 2.</_></rects>
      <tilted>0</tilted></_>
    <_>
      <rects>
        <_>
          31 26 4 4 -1.</_>
        <_>
          31 26 2 2 2.</_>
        <_>
          33 28 2 2 2.</_></rects>
      <tilted>0</tilted></_>
    <_>
      <rects>
        <_>
          32 28 4 2 -1.</_>
        <_>
          34 28 2 2 2.</_></rects>
      <tilted>0</tilted></_>
    <_>
      <rects>
        <_>
          33 26 4 4 -1.</_>
        <_>
          33 26 2 2 2.</_>
        <_>
          35 28 2 2 2.</_></rects>
      <tilted>0</tilted></_>
    <_>
      <rects>
        <_>
          48 14 12 3 -1.</_>
        <_>
          51 14 6 3 2.</_></rects>
      <tilted>0</tilted></_>
    <_>
      <rects>
        <_>
          50 0 10 1 -1.</_>
        <_>
          55 0 5 1 2.</_></rects>
      <tilted>0</tilted></_></features></cascade>
</opencv_storage>
